{"layers":[[{"weights":[],"bias":0.0},{"weights":[],"bias":0.0},{"weights":[],"bias":0.0},{"weights":[],"bias":0.0},{"weights":[],"bias":0.0},{"weights":[],"bias":0.0},{"weights":[],"bias":0.0},{"weights":[],"bias":0.0},{"weights":[],"bias":0.0},{"weights":[],"bias":0.0},{"weights":[],"bias":0.0},{"weights":[],"bias":0.0},{"weights":[],"bias":0.0},{"weights":[],"bias":0.0},{"weights":[],"bias":0.0},{"weights":[],"bias":0.0},{"weights":[],"bias":0.0},{"weights":[],"bias":0.0},{"weights":[],"bias":0.0}],[{"weights":[0.0017597763131109723,-0.1755511019915308,-0.04806251894428204,0.5839050010616238,-0.7787437559840704,-0.7453735585455306,-0.14367832855659834,-0.2083510107210711,0.3082946455502955,-0.47280341966605555,-0.7166416651361214,-0.31915293356429775,0.862437903504528,0.6814022641614876,0.7648864892800731,-0.7705086499975113,0.10442949222076026,-0.41366228650133063,0.0616189669579299],"bias":1.2735458555624963e-183},{"weights":[-0.20410105253155164,-0.6147807387597384,0.4474464358499395,0.5970359018666525,0.6521141698825796,0.22690928171500468,-0.7211727530564951,0.29698104763608413,-0.7550603719480669,0.6567400161003238,0.45827467998723037,-0.2772367653376393,0.8777408353230962,0.7460609415973587,0.6188856792868012,0.3466821650795233,-0.06022080935335028,-0.3630264681990285,-0.41790515168765063],"bias":0.0},{"weights":[0.7356068870268877,0.4083663905307793,-0.2675106560237914,0.5487716563380971,-0.5046004887535527,0.9708590707452149,0.687739068780294,0.39435239414671086,-0.19535630469051535,0.16514802629458591,-0.10165644993983936,-0.10267337330131987,0.7351344483414506,-0.25997098746642155,-0.6263040489090406,0.534470357031358,-0.16118078688672233,-0.2335140796839834,-0.4827498662280396],"bias":0.0},{"weights":[0.10926399314893409,-0.5747880428479188,-0.4756241694918031,-0.0029733483983127584,0.9190821609005213,-0.6654229380921866,-0.5360984731861529,-0.8394944274416831,-0.22839971760007938,-0.472268910622474,-0.2110171106214933,-0.38660712187761703,-0.059286358044168264,-0.5633703000050456,0.6734652057755648,0.9867010913097847,-0.8396216733211266,-0.39482853026849707,0.5526896049620991],"bias":2.820025939578086e-228},{"weights":[0.025588048460711388,-0.6905469537620559,0.579351789338018,-0.33792193024700756,0.7717069019399916,0.5931323142050702,-0.7772912426865677,0.8560849187846813,0.5436829083291341,-0.6999613605262227,-0.7717099025002541,0.35062733045260464,0.7032599855178221,-0.05526460387442489,0.2504030935285124,-0.43873593295132274,0.2614471569751071,-0.9159398177454516,-0.885408245751508],"bias":-1.7813124485228798e-201},{"weights":[-0.09176989818765949,-0.6251965888050254,-0.6686500387508427,0.32814202870241693,-0.9010740156355771,-0.6827328851834119,-0.10924400422240166,0.5458244983662655,3.004872194064945,-0.5062332248171535,-1.600898753655329,0.8868640418538688,-0.8491554180394949,-0.7966308486601934,0.7722641337096547,0.42732105385696517,-0.7058233835683817,-0.9839823538549048,-0.22614332088916855],"bias":-0.0003056535907358595},{"weights":[-0.5650887657563164,0.636583248500048,0.6296248245143019,0.4827876451585382,0.4522121498698213,0.7036555880421544,-0.08115485062382,0.8416725537056728,-0.5864762169540598,-0.9399050672450637,0.7225040249129493,0.840533732782049,0.39653126232001856,0.3486094753095226,0.737067984794213,-0.2796194899522799,-0.27208095884558414,-0.5815026745359582,0.07798866758970835],"bias":0.0},{"weights":[-0.2726170014834888,0.9289221793302866,0.5772229679579244,-0.4267737720199518,-0.7118147386326537,-0.41494732804312306,0.17343930498635274,-0.45246559751806403,-0.4695763768856449,-0.44576433707716223,0.23314606967089357,-0.9706412546454621,-0.15837862731249341,-0.5669248931388067,-0.4042461761387943,-0.34088058591575354,-0.18093339065360814,-0.793085641447064,-0.27784890358541503],"bias":-4.687395729125642e-220},{"weights":[-0.626040803054507,0.8632166654668305,0.23999365242350423,-0.2245379424283156,0.13183688455415243,0.9414683931913519,0.09711677272622454,-0.098391858463732,-0.3133300080172532,-0.17391368905545335,-0.792517231577651,0.7958136437099448,0.5051917219003337,-0.6963305387236458,-0.7160746925010981,-0.06435522126321125,0.42135247798953435,-0.9823568205995894,0.2260878117528482],"bias":-7.258245529785882e-61},{"weights":[0.09763814394835624,-0.19955547922080363,0.22824665541961453,0.26180768741270555,-0.9861000715922748,0.20360321869344444,0.30545122328778795,-0.9137883035156813,-0.602732896705843,0.909073180705382,-0.4031632043188882,-0.15017866977913386,0.790523701093734,0.7683513487924327,0.5413803637062062,-0.9752782278191083,-0.0036265650229250213,-0.2346713486366787,-0.988905699064035],"bias":0.0},{"weights":[-0.9941300770021564,-0.09570580874956924,0.5249736103706741,0.9157318201984288,-0.27443172977863695,0.8420249137608367,-0.0171584797356239,0.15881628640060796,0.4822656161953205,0.706577236219474,-0.44706388117669693,-0.017669948275635505,-0.1362181368501747,0.8554772791203962,-0.8001962574598984,0.2814336777658686,0.42295245027030415,-0.2998587888040567,0.42418793343738814],"bias":0.0},{"weights":[0.9204218587763897,-0.3458233279849541,-0.592531687366816,0.042000538559815226,0.5723536464691032,0.6963865368982542,-0.20165780342869866,0.25661039293906374,0.08274298792515111,0.5903569707449443,-0.23360456227474913,0.2668990947842502,0.29719277146032796,0.20626049199768381,0.44627088816915395,0.267914489341198,0.38704800470647793,-0.019594434530342486,-0.4841783540051581],"bias":0.0},{"weights":[-0.5995577833835681,-0.5977714700164909,0.13608341649344746,0.6027537731706802,-0.9690823050478183,-0.8363242844475014,0.3231829562628037,0.022085183278910847,-0.43583468142580184,-0.058848692845847594,-0.46042962891582784,-0.03832641160947858,0.2182771813887161,0.5574328921704175,0.1196651515969438,0.0072337706646878885,0.9071062765483395,0.012424719621501712,-0.34750964606218604],"bias":2.119199784841987e-57},{"weights":[-0.9748457811827764,-0.8207363371114891,-0.5234475410621182,0.48924054578070253,0.8508778139418447,0.9988602729722516,0.8656754811981613,0.9077545656317527,-0.5929088503187243,-0.26857293086388356,0.08253801796049798,0.09441568964684066,0.08848962042922714,0.9210656218851727,-0.9069640620895019,-0.5447789605102304,0.6643751179610606,0.2689434333978906,-0.7155412044455396],"bias":-2.0715247765552263e-83},{"weights":[0.3014905308142377,-0.1393790788645477,-0.645982083030717,-0.8659893274031161,0.23885554544089516,0.8896379090364093,0.8020544734669857,-0.8481462469037373,-0.20817654338320457,-0.42881768740345594,-0.7995746729523634,-0.29888210894082734,-0.6285983204466028,0.14444507335290657,-0.10486202574020087,0.3025263639769209,0.8055224165047417,-0.4194020254032518,0.953097771614821],"bias":7.972140331659747e-134}],[{"weights":[0.0170337098385156,0.9170628655844896,0.8263821320820132,0.4890016031800668,-0.5054675223428347,-0.23790126020422475,0.20148234911928498,-0.3833846256122677,-0.6634116328474242,-0.11726654205504429,0.8520714253505003,0.8251002713553547,0.877759251234898,0.7286840327364041,-0.06636515369087848],"bias":-0.0043164583743987295},{"weights":[0.28164554677713216,-0.15986386074987827,-0.06963774305371234,0.033281561399985726,-0.5807106472322667,0.8566774874515173,0.9550664541285352,-0.23006132288902226,0.911540417254685,-0.23192540229335992,0.6777175983829975,0.07218498964906245,0.5919620284528317,-0.059486988826196185,-0.2089948561053303],"bias":-0.10879547554087654},{"weights":[0.8768200242319408,0.27209852955853264,0.35194570311951645,-0.8633534239546461,-0.824838330859206,-0.13617400795513696,-0.2910281316917511,0.4468534804994242,-0.2531181201916439,0.6179542350485682,0.3101889901209608,0.5483675290606097,-0.6314296937714436,0.8876536877315284,0.2650350475635186],"bias":-0.032769456678801274},{"weights":[-0.3589863458374336,0.356678378692802,0.9032835478163754,0.9227083050462261,0.09439097941382801,-1.0745374280200808,-0.4068313465757103,-0.5118432723605606,-0.09178754279507517,-0.7680028976510149,-0.3458290397807366,-0.09420644278923893,-0.051406609216319676,0.955114627234062,-0.4017490233818388],"bias":0.13662979963028213},{"weights":[0.8777238822617877,-0.3896141912092106,-0.20714091478779148,-0.6081117542884207,0.6049288012018987,1.1960917161782183,0.045255471128396785,-0.7144901124561978,0.3803143354818026,0.7501213431458389,-0.19275025593902337,-0.6503702840249992,-0.41086028763741833,0.2651441747991581,-0.6369969368469626],"bias":-0.017013592945792768},{"weights":[0.997614066118973,0.27570413691105944,0.7721555788787632,0.07055545783449002,0.7123908756686235,-0.952760239991884,-0.7904570931779791,0.8311919364374436,0.015901521633127302,0.1823118778307408,-0.8863687917185349,-0.07487185893033584,0.1438813549463447,0.35436377919359563,0.6508700355456476],"bias":0.0002580866637646053},{"weights":[0.1252085426153915,0.2310337496489707,-0.23114241953808148,0.29746406082954335,-0.6264964000901982,0.8041933528950865,0.9048259449248732,-0.1431645230734322,-0.4583623340801344,-0.6908443549391011,0.2253049169812464,0.8309237644557331,-0.4404416897379835,-0.48922203505063333,-0.040231079779254664],"bias":-0.1455421125107473},{"weights":[-0.3220221986358687,-0.11684347125869941,0.2999439332315803,-0.9969677475325924,-0.6781212238233065,-1.2298643112611394,-0.5312628932646382,-0.5380849723322307,-0.1484423609381209,-0.6549989813435259,0.3813654515535153,0.516305565136615,-0.058838864416685954,-0.7776820444601578,0.3641283107003983],"bias":0.05681913210388701},{"weights":[0.8312295446996574,-0.9642966414989204,-0.9869650392179229,0.5362038638943263,-0.6079733989152518,-0.17941652840229175,-0.6898736146425466,-0.8655394106179624,0.2694035379205162,0.8110541816133722,0.7379033424438245,-0.7543765008907727,-0.805888331131523,0.019104767973005643,0.00145996375190105],"bias":-0.04695901749824436},{"weights":[0.8370360775924208,0.057819129679192276,0.7964289909890002,0.20797168699027102,-0.812609287659928,-0.37791361907052573,-0.17015793702148052,0.8263809679510765,0.04598166761535394,0.6854704258639551,-0.8981730509361504,0.4398897546449235,-0.10680538980581611,0.6272116584380973,-0.27272677062937145],"bias":0.008104609126070509},{"weights":[-0.600104719248232,-0.043420102478375404,0.2240641679530469,-0.5638426078785694,-0.4333742963976426,0.8344586578248027,-0.5773315581845866,-0.7211540779734782,0.9602563270606668,0.39514171454300023,-0.5927902622587292,0.4158415703622455,0.9924376468839644,-0.9906161454676212,-0.031298680832530845],"bias":-0.06491427880420293},{"weights":[-0.4772563119497826,-0.6576470442913058,-0.4599672070578872,-0.7065834052890265,-0.9921151529612104,-1.6819176095661483,-0.6128702371495134,0.9618674741926272,0.8275628495459979,0.80494460053558,0.14049416532711004,0.5970785045012157,-0.8922269523379351,-0.8826843143433036,-0.0964183168768189],"bias":0.323748031829055}],[{"weights":[-0.06083702816589826,-0.4508955571113047,-0.47472655244519757,0.09325754509062228,-1.113181449271557,-0.8886487670649118,-0.4057046671705428,0.005647680337365751,0.6952075504044585,0.7892901416263293,0.7331414278704146,0.7569266085043871],"bias":-0.09888191759986369},{"weights":[0.544013682532271,-0.8794223156869758,-0.17402687667722988,1.1000593221010937,0.272090008950217,0.5213762968556257,0.0579314231249895,-0.4675452612982491,-0.8957497305966298,0.6877075528148786,0.7678816831566714,0.9800922385536438],"bias":0.06577250193997043},{"weights":[-0.7668187803151681,1.091162420184361,0.4399124728256841,0.5185461455895775,0.28692810059436985,0.1990295672529006,0.357839760913551,0.8844978337362924,-0.8765227849427196,0.35812613684074307,0.8431973018377374,0.7796432079338955],"bias":0.12762811395597096},{"weights":[-0.8729051268117315,-0.18113973512160342,0.649626330866792,0.9370481566359781,0.5523472940406795,0.29602335988176337,-0.08239241042529333,1.027808169074284,0.9429659112900852,-0.04934777688699737,-1.2667232758055285,0.8821936393958979],"bias":-0.13682494098711215},{"weights":[1.101773230743366,0.557480228520208,-0.5715448114826702,-0.6077656122516575,0.23969153019630943,-0.8478740996036848,1.066675898460519,0.034357840739212935,0.9377239752973726,1.02830382007266,-0.44598733647782063,1.057139215791875],"bias":0.12224871412826405},{"weights":[-0.70183506485768,1.091011602590764,-0.14608417078441166,-1.1112756875137593,1.2688088811008766,-0.6120925617972368,1.0043838531666671,-0.5785180691662172,-0.24191068641118268,0.33922800446286894,0.158410099390584,-1.1236182389571525],"bias":-0.1861841138227043},{"weights":[-0.6788288793617904,0.8344710062141407,-0.47370357934158375,0.06724791049203796,-0.27701837046632577,0.0935828767549435,0.4460690711657228,-0.36840846074848915,0.1371680826387609,0.6623497634797859,0.09995843951434338,0.9459130453393901],"bias":0.2187873969029246},{"weights":[-0.7003698104995092,-0.5033119157917587,-0.4536921495459064,-1.1021443293567617,0.6797770447751091,0.08162463747475945,0.7167753073407122,-0.5079911664594524,0.5792083368598335,-0.18682351180822154,-0.2255050084757115,0.3658233586660025],"bias":-0.18549391199443677},{"weights":[-0.7445741150994876,0.013267900851038055,-0.7648673011850868,0.13685545945227892,-0.08925790910237155,-0.2628394049669476,0.09343518396221184,0.535827892047045,0.8048995598959634,-0.9425631877194518,-0.7308703144111972,-0.12072494844093093],"bias":0.06870870644752125},{"weights":[0.7066925389728652,0.4803944953168797,0.3311378354738706,0.5655767701844954,-0.6361763944956542,-0.35175499191812315,0.4684182923611332,-1.086467597932679,-0.01694824194491531,0.03146849989268028,0.6904382662734607,-1.2166322360027406],"bias":-0.1297697190010378}],[{"weights":[-0.5751502807250671,0.19663596212049483,-0.9792885470036566,-1.2645847904883183,-0.13205387183453138,0.38866018874444314,-1.0390652310248734,0.6973345410306305,-0.4648146090595355,0.6086582749480097],"bias":-0.24601366789618578},{"weights":[0.9305105471786133,-0.08749414881854084,0.5998704634418803,-0.031006632761642998,-0.6364253150090621,0.41329142756933446,-0.16565613869560955,0.8437717211513033,-0.486718195299775,0.5715398536964096],"bias":-0.06773729972052871},{"weights":[0.6453299696837089,0.70488659015913,0.02365058599541785,-0.3925802712233458,-0.33674596127989265,-1.5838668860209495,-0.5658666795662479,-0.250165233581188,0.9557006171040421,-1.1492312377038503],"bias":0.06406835984377021},{"weights":[0.3873459295308435,-0.9867419471904249,-1.2558788433827681,0.4480228641131395,0.041532454446529046,0.26170866636878565,-1.0999603174449735,-0.1183584039795905,-1.0020158224835107,0.43848220519198233],"bias":-0.41811405728318907},{"weights":[-0.01635954270274858,0.5158179867529363,-0.9674958097739536,1.4170754134797483,0.42837552667911577,-1.727173697919084,0.24661513353470035,-0.5794128954495821,-0.628129863446858,-0.4821538879919251],"bias":-0.22037146878687694},{"weights":[-0.5341828086920027,-1.3130915585272203,-1.3238611518068475,0.4066796443836494,-1.0833142801904476,-0.5826289421860682,-0.3334606333210821,0.46867513448618225,0.01279407018620935,-1.1812923103112318],"bias":-0.4973206640839547},{"weights":[0.38555783129897025,-1.0407949030273378,-0.34654529272160695,-1.0678415531196088,-1.339498593445573,-0.06679767381198509,-0.7218424974266744,0.6540392416158761,-0.18219928377678088,-0.697003917834328],"bias":-1.1731406486537597}]],"learn_rate":0.0001,"activation_func":"Sigmoid"}